4.983407184468483520e-01,1.319284412691783537e-01,-1.356594754593165586e+00,-1.591895894267122635e+00,-9.076696053926371910e-01,3.249776068194015766e-01,1.359473477536903507e+00,-7.077544102636073031e-01,-4.889858522220324466e-01,-1.755205843330829740e+00,4.705403397656947317e-02,-2.733726897915273457e-01,-7.908813631810700517e-01,1.026364144665387473e-01,-1.692860496177998053e+00,1.109792365034230482e-01,-1.238995335601572739e-01,4.004859320033163916e-01,3.224496359600107498e-01,4.958966450926939884e-01,-1.755789084783290765e-02,1.517839816273355735e+00,-2.241035857991015845e-01,9.308512404489716063e-01,2.440889957692527756e-01,-6.698944814190303798e-02,-1.887137592038385520e-02,-5.119421997116663237e-01,1.176041340743643859e+00,7.029890691289037985e-01,-2.818851181970201125e-01,4.534401480385234606e+00,-4.157695645019756081e-01,1.508859241214158597e+00,-1.177964196867478108e+00,-1.829120753326825000e+00,3.571125674577921294e-02,9.519466967033345384e-01,-8.551164404465674829e-02,1.584808607711864159e+00,6.476962896058802155e-01,-1.021329645371777506e+00,-6.807625433422595518e-02,5.150376585480493929e-01,3.830129845259203081e-01,-6.135362260568891779e-01,-2.970579749973502048e-01,-1.365077407472482969e-02,-8.403945450319351140e-01,2.635120058325210568e+00,1.583006410830196942e-01,1.018872615090993472e+00,-2.074967731405447796e-02,-2.033663919378083523e-02,6.367505386792315925e-01,-4.833402327768435321e-03,-1.100472795446304081e-01,6.653956328469988468e-02,-2.811508815731746380e-01,-8.079374681771396283e-01,1.305784480281975968e-01,-3.193471897420948613e-01,3.400204281088065050e-01,-2.269941102047986353e-02
2.176565470660122778e-02,9.220499560153110064e-02,1.818581710492367165e+00,5.318110159731239683e-01,-2.106127314105441239e-01,-9.209391336660331662e-02,-4.671478416158706404e-01,3.702215647024340583e-01,1.544232240560251768e+00,-3.344116072833286379e-02,3.365388467908828396e+00,-2.426643937471393730e+00,1.167546488973337571e+00,-4.414867584538413325e-01,-2.060578924427876490e+00,-5.121312545110465742e-01,1.080200840631573733e+00,-1.767913582857009169e-01,1.281621977490276787e-01,4.024780607685450873e-01,5.592086401348578262e-01,1.001300335071082653e-01,-2.103020789108858146e-01,-9.561556789486370667e-01,7.498127501972089437e-01,-3.694416860046687567e-01,5.208294253899341530e-01,-1.078054158921560202e+00,-9.364752485016415717e-02,-4.203272990663001196e-02,-3.320719501049305689e-01,1.349870243289319038e+00,2.844495220767268573e-01,-1.413792588327211552e+00,-1.640079016615363650e-01,4.643351626263017562e-01,-1.237482631259527288e+00,9.129410081672297839e-01,-3.414989333762208368e-02,-6.582345647231208075e-01,-3.840265025322883718e-01,1.040098044699653418e-01,1.477871324991284485e-01,2.860067177545252415e-01,5.346183666776140875e-01,1.169080078723345739e+00,1.859348498984718656e-01,-9.765213256683605292e-02,6.612514226214641910e-01,-2.292305636851011741e+00,1.234804251326432761e-01,-5.517780607330289300e-01,-1.043913760281108827e-01,2.589491519923741714e-01,-1.401610686087920721e+00,8.280032171570073096e-01,1.819249086351799882e-02,7.046652519180041097e-02,-1.536280241308521366e-01,-7.570718489437789911e-01,1.415234117325441798e-01,-3.861845155949987785e-01,-2.130518262284689102e-01,-1.995275779010884792e-02
3.642808692091900058e-01,2.365908503743779645e-01,1.528818701155353343e+00,-1.337125346391717651e+00,-1.868355956015080310e-01,1.642983449544560992e+00,1.451118264454514251e-01,-6.059310907716358718e-01,3.529180484243646387e-02,-1.310979785967534728e+00,1.814575762352015786e+00,5.229225927208353691e-02,-1.894352614238427490e+00,-4.422279489735356783e-01,-1.322213071733081557e-01,-4.171917043742526809e-01,6.091723481458936051e-01,-2.333720813097994451e-01,-1.502688308922330407e+00,-4.366138351649676008e-01,-3.226947127914317481e-02,3.866426539294360865e-01,1.654160896670241909e+00,-4.428704748536624880e-01,-6.500226881436853565e-01,-2.760816110564870418e-01,-1.289737147481915258e-01,6.864428837111119508e-01,4.136954620657304904e-01,4.686971415386003148e-01,-8.038933132173689544e-02,-3.741294726833895301e-01,-7.704908401308742383e-02,-6.866250551057487828e-01,8.538392737980481373e-01,-4.403751892130030043e-01,-1.957214845181553808e-01,2.442322453263686022e+00,1.640824371601183884e-01,2.759308469122038754e-01,-3.904205372691388343e-01,1.289408701331403950e+00,-8.260223607778842403e-02,1.741007497337427046e-01,3.939539954028755536e-02,-1.090993704567452038e+00,-2.588059203719601797e-02,1.164796670214093138e-01,-5.339883067663234867e-02,-6.437502520034348308e-01,6.269559907681944433e-02,6.128149178910388128e-01,-8.979698902968583085e-02,2.983957444859687835e-01,8.723056367228884667e-02,-3.436749981710936486e-01,1.943317889312244640e-02,-4.204488549264426625e-03,-4.239569982182328500e-02,-3.179925745333652132e-01,-6.148288374063095446e-02,-8.356147357151320065e-01,7.711301765934196473e-01,7.201563477479563935e-02
1.143770515869180215e+00,3.441072607178642384e-01,-2.104560738647975604e-01,3.411225370895332176e-02,-1.160284807630238335e+00,-1.841721144373348329e+00,1.771472073924233448e-01,-3.958233003143986073e-01,-2.684480969853247911e-01,1.431846150569862086e-01,1.545423298405450563e+00,-4.523275287595449057e-01,-1.760560845250896400e-01,-8.065939565813419199e-01,2.966787034071074913e+00,-1.273470935298472551e+00,-4.614031809714131960e-01,3.076160617258320573e-01,-3.628694617231074115e-01,1.165983431699345180e-01,8.529679113663929391e-02,-1.444479055435748061e+00,-2.994741234766502558e-01,-2.188911040052561041e-01,1.311099982834002420e+00,-2.889814909807082444e-01,-2.281701400496475018e-01,-5.324363860929161030e-01,-6.150225742364988646e-01,-5.009576851960959587e-01,1.106437846354620530e-01,-3.922245750097593242e-01,6.477096091613974149e-01,6.378961446279050040e-01,-4.725218003253261467e-01,5.241942761528096684e-01,-4.106745936733345870e-01,5.260065355735945580e-01,9.788942973965612804e-02,-8.993545788877294056e-02,-6.901260098583281710e-01,4.969308172164386583e+00,3.068205614744963158e-02,-5.827326139989418702e-02,3.451153294902156721e-01,2.439893529268150063e-01,-9.036213910653824455e-02,-8.759355151625097813e-02,-5.818912678052700072e-01,-2.297408115246775129e-01,3.762220802951127957e-02,1.215145813406484296e-02,-7.937228257504157225e-02,-5.437730099199911127e-01,-1.881039498037137658e+00,-1.961643280270555442e-02,-7.524045527728420897e-03,1.201706827372876624e-01,-8.748461225240522499e-02,5.318870969647465641e-01,4.094125912475568008e-01,1.336927354486405761e-01,-1.408284850070056771e-01,3.935251917075593964e-02
9.867838527684340555e-01,1.254614728283170333e+00,6.913849604524623382e-01,-6.415928063365797240e-02,3.670706161685761693e-01,3.660004998289229650e-01,1.747903886282397012e+00,-1.680312382110070502e+00,8.742774316145305313e-01,1.930266329902726508e+00,-2.443370254568527855e+00,-1.987357358139111962e+00,2.933832377685153814e-01,-7.567489256237275308e-02,-4.291467590116358366e+00,-2.731251106272912232e-01,-2.510931589147079035e-01,-5.664552806071514457e-01,-6.765925772485166245e-01,2.327558847501494110e-01,-4.363693178351836233e-01,1.704800769350768852e-01,5.136045474385797505e-01,-1.167140857336265380e+00,-4.647830443657754995e-01,3.951594935220109628e-02,-7.015675384213244936e-02,-1.094794023593850252e+00,-7.313541984535942841e-01,-2.435267170579806351e+00,-3.511931727340856790e-01,2.432241169578352569e+00,-1.903315960810592344e-01,1.108452419471280814e+00,-6.630900935851132827e-01,-1.778627076261347362e-01,4.502623433811063225e-01,1.509641062499372799e+00,-7.597872787952128504e-02,-1.519427880497254968e+00,-8.819625299850226696e-01,1.756557458640040981e+00,-1.057360200896498154e-01,-6.726056275239099547e-01,-2.044796763224772940e-01,1.318783267992095887e+00,3.321227999999726843e-01,-1.260412199992508864e-01,2.861432008330164201e-01,5.223634510561099287e-01,8.003864707370826614e-02,-1.172734512237776638e-01,1.660350688797222057e-02,-1.359942184912099339e-01,-3.889496300455362876e-01,7.596679016976466692e-02,5.987503592237829880e-03,-5.908255826170436681e-02,-5.985159370384195848e-02,4.648658978411324694e-01,-3.043876614855088591e-02,2.060066601147838850e-01,-1.041049851077456845e+00,-1.780852773934560040e-01
1.000336404457141226e+00,-1.016864912470621940e+00,1.033985528030767265e+00,-1.530515360386990542e+00,8.350322022594259819e-01,4.945757435595060092e-01,1.578941864607202428e+00,-1.505422213599431069e+00,-5.120321734457846663e-01,-1.004046130027196559e+00,-9.204792784309393516e-01,-1.936159721433973413e+00,9.853072903130964955e-01,-2.723981264268435926e-02,2.731194619384452071e+00,5.560082047988224030e-01,4.782637101153477954e-01,3.607548257774795264e-01,-2.823739993722874875e+00,1.491244139231366617e-02,-5.132952394607340763e-01,-1.752685966543261697e+00,-4.408983410783440249e-01,1.636368415265135878e+00,-3.084914207299351285e-01,2.253957248459347029e-01,-5.117582956017262263e-02,-5.364113736656337394e-01,-4.241273167968306335e-01,-2.076289207783927893e-01,2.598881559398917296e-01,-2.419318858435314468e+00,6.718882943117014950e-01,1.739675189862454951e+00,6.315902009370167880e-01,7.174042997703009572e-01,1.021074388176867881e-01,-6.046407271115079585e-01,-2.687619973943864427e-01,1.230358031623437709e+00,1.763224527220189186e+00,-1.633666118996378813e+00,5.127896064177744212e-02,-9.203431834269819312e-02,-1.326785661775608804e-01,3.040862979633585789e-02,-2.264388687489426923e-03,8.536869270197822157e-02,7.483347065421183109e-01,-2.631042538773713524e+00,7.052924624376394336e-02,-2.660528905304047620e-01,8.781172892432011212e-02,1.323216654970083353e-02,-8.409873682230850633e-02,-1.597307561473992610e-01,2.343085636790271861e-02,-1.127068323695901431e-01,-2.620282701072892406e-01,4.789564157232154562e-01,3.255792134161394902e-01,1.093490717115757516e+00,3.174326149906939176e-02,-3.216002394460539676e-02
-5.590210646641046166e-01,-2.823929326054057110e-01,-7.088399997803200847e-01,-7.459938941090962228e-01,-4.234425034361308238e-01,9.559059497983889431e-01,-2.638839306972146082e-01,-9.889806127640549116e-01,-3.864632124819992326e-02,7.960392043482114044e-01,1.418622484690834629e+00,1.372107396643005961e+00,-6.572345349222420419e-01,-1.338867326967760896e-01,2.550164736133744836e-01,-4.152789628238124919e-01,-1.181744217478827297e+00,-5.983956315925661462e-01,1.076255451466337609e+00,-4.239708583685787846e-01,4.042033033770436878e-01,3.809500180887909204e-01,-1.317706925644230864e+00,3.300206040914527295e-01,-1.581411170467686977e-01,-5.507197188818404587e-01,1.947086451072381208e-01,8.403571258512592124e-01,6.739680516129023524e-02,-3.183064772791429076e-01,1.332227623455202459e-01,-7.674979605922384318e-02,3.679907728890581819e-01,-1.907695545078279764e+00,-2.361830149695035019e-01,-4.914181037207896591e-02,5.628192097552601192e-01,-2.826057544666208954e-01,7.182810279951117316e-01,7.167035271361233972e-01,-1.004563063673984402e+00,1.262955295073438400e+00,-1.305074811690880299e-01,4.171739739540663017e-01,-3.517674646016779455e-02,-5.077572206824050305e-01,6.000207616025537288e-02,-1.272035044101485490e-01,-3.277786646627559031e-01,4.854814308121493949e-01,1.193114850793065285e-01,2.049903092571345453e-01,-5.925238921936643727e-02,2.469511270740499531e-01,1.702655850313046004e+00,6.683213776525570582e-02,8.910608092345241593e-02,-1.102123085631888239e-01,-4.506526905281403317e-01,-7.771654733693229844e-02,1.936596170285277141e-01,-3.136627107269345793e-01,7.279160592010215369e-01,-2.324783774264988639e-02
7.483062657604061529e-02,-3.236109271879198390e-01,4.161366199426180246e-01,-4.163670357425360846e-01,-5.519873206604499760e-01,5.177216514325574254e-02,-1.876221929120843734e+00,4.949002424729200267e-01,-1.300071804216259341e+00,4.581410349171325946e-01,7.807522940359064023e-01,1.062893985460567903e+00,1.464587024759824753e-02,-6.014066224262830662e-01,-1.691126748874268504e+00,1.626441775996590247e-02,3.758498969043820304e-01,1.336831046049785865e+00,9.940476122334767073e-01,2.861870173741025702e-01,-1.757294684643710388e-03,2.762370016459880229e-01,4.814263414628477955e-01,3.062921580063256988e-01,3.541350783999409613e-01,-5.378189184522853550e-01,4.336875050170654888e-01,-1.165795355604962502e+00,-6.785777649043890358e-01,2.206182843852155351e+00,1.839037432925938811e-02,1.693004431082571148e+00,-1.727024697112023999e-01,-2.944216175989991857e+00,1.288360028504071941e-01,-8.243426915942670963e-01,-3.657491776622107116e-01,1.225237986406490176e+00,3.083555608009445614e-01,2.297150186216792844e-01,1.267522236928996460e+00,-1.752968018821527141e-01,2.642751265426673477e-02,-2.614119168951437588e-01,1.374356179129148647e-01,5.932536315530770876e-01,2.412759883301300035e-01,2.192781880617594714e-02,-9.459149337737501329e-01,-1.070199781437092712e+00,1.073954550099666255e-01,4.088568030938448672e-01,2.630095252872226008e-01,-6.382354549722750736e-01,-1.772840415783430101e+00,5.601545616676023576e-01,7.096655212616721775e-02,-7.274177272071129241e-02,-5.050819095073060330e-03,7.987849888677580612e-01,-2.324113584040575498e-01,5.981132245207957387e-01,-8.432464371782700807e-01,-9.276090342691607760e-02
3.975237012716263396e-01,-3.487623243589086375e-01,5.142576606421537244e-01,-4.021818843873957716e-01,3.766126456851176529e-01,6.105642512423513635e-01,5.330916769496342189e-01,-8.813591163357428204e-01,-5.592456057445006623e-01,5.803034179419986893e-01,-1.206922943932061676e+00,8.715183103716273028e-01,-4.829404711331066746e-01,2.360990026257487606e-01,-4.838671665538437638e-01,3.359928504135651361e-01,3.206003560925181906e-01,8.415063461853762583e-02,1.819967848351046635e+00,-2.880359236897916952e-01,8.270355527359410930e-01,-1.039624716863176423e-01,3.330347096969302201e-01,7.741952676497660946e-01,-1.045529616851993832e-01,6.923203973492900731e-01,-3.907630393017463288e-01,7.098643735805418853e-01,3.515123750326157315e-01,-4.904642533099414781e-01,1.268476078941966900e-01,4.637647889779229482e-01,-9.478111749310809131e-01,2.400265390102579666e+00,-2.395957314479014999e-01,-1.280418453635863596e+00,3.373614137870864071e-03,-2.434080854983104114e+00,7.959294614616667651e-01,-9.317608139864180794e-01,-7.957231564016065128e-01,-7.988849505011876850e-01,-1.004565683505360685e-01,-2.953141358568540098e-01,5.904781780672075514e-02,5.354539127239951180e-01,-2.695441087359969068e-02,-1.793130488287805191e-01,-5.653980484768848791e-02,5.808099313140725473e-01,-6.255280747486186010e-03,-3.064368739609663606e-01,-1.384091222715891356e-01,1.548396663789610717e-01,1.291159278044322845e+00,1.076082052294366154e+00,2.950899364161519225e-02,7.093216492171716681e-02,-1.855132399159587497e-01,-4.456852968956976913e-01,-8.343072229692803654e-02,-1.410792576225275319e+00,-2.760204049354990363e-02,-9.410517550073406456e-02
-4.804691625060533711e-01,-7.270018540757694492e-01,-1.047057790023265822e+00,-5.764114193720617507e-01,-2.193570289316405519e-01,1.041324059037819660e+00,1.130269295285624143e+00,9.452159585050324830e-01,6.306892426385934947e-01,4.645884156817379207e-01,4.617902351947015815e-01,5.007299728828468188e-01,-8.327540015533827500e-01,1.096155987327283698e+00,4.204874741231321877e+00,7.531811408081505732e-01,4.039966544002239202e-01,7.066336090074407661e-01,8.194283852315381589e-01,2.016289921626726600e-02,1.783005823872321760e-01,5.725769866572459899e-01,3.095953441113158400e-01,3.164582007982660872e-01,3.171846800652197151e-01,-1.512004832370768548e-01,-5.964989660378551273e-01,-4.647225930767716617e-01,-1.165901016843008536e-01,-2.329280153021392463e-01,1.377403211244981329e-01,3.367881722523956289e-02,-3.899761459106123596e-01,-4.422614824526254762e-01,-3.680011917489960371e-01,-1.610071193956779667e-01,2.574917711598072589e-01,-1.752469428674951146e+00,-3.232438269462621361e-01,-4.614864910355031546e-01,1.723709472328575965e+00,-1.088561307430705893e+00,-4.589593448843008044e-02,-7.261937204249352407e-02,4.260418810354809627e-01,-3.004282164829615853e-01,1.521705794554100155e-01,-5.448979501099601025e-02,3.496828446301126769e-01,-2.017402730987943649e+00,-9.280083484817726325e-02,-6.970721465626188440e-01,-5.235625154030108114e-02,1.412291894017683180e-01,2.195019239982334724e+00,-9.107594912472769533e-01,-3.016168265497442408e-02,1.902730159745628577e-02,-7.215172153903620655e-02,-5.565863423390421394e-01,6.897837955375667185e-02,2.061948038400842481e-02,2.641094800884277727e-01,-2.181714090813925144e-01
1.985038623356367937e+00,5.427276267692938694e-01,2.507332266580936664e-01,1.194686630525123361e+00,-1.306091536336758709e-02,2.682515544852142497e+00,3.505375128916585203e-01,2.102644293739717174e+00,8.282066993144922007e-01,-3.438229749626301235e+00,-1.698607436757052280e+00,1.497134028024202479e+00,-9.135025531561487000e-01,4.144819885410683802e-01,-5.686079624437645474e-01,5.271478923363053237e-01,-5.663471274715920628e-02,4.673596678828000894e-01,-8.709670952437066349e-01,1.868751051218568437e-01,4.302743776719831215e-01,1.334056733269276318e+00,-3.252995229343192407e-01,6.560439374066118212e-01,-8.649444667028786116e-01,-4.989371950707438552e-01,-8.122843559942891090e-02,2.135581027742768645e-01,-3.517798956084856599e-01,-5.142116913680434553e-01,-2.069186073602011511e-01,-2.243079710583666841e+00,4.486460040330446652e-01,1.611161347375856367e+00,6.135968115524186028e-02,6.803342054306857900e-01,-1.186115194700376324e-01,2.552917431850722507e-01,-5.971653666578997655e-01,1.627811840224819839e+00,1.395510719681750889e+00,3.054249965844263448e-01,-3.781245383165598301e-02,-9.376606710424650881e-01,4.815383452927138319e-02,1.600557556649893076e-01,5.585825620988012913e-02,-3.744099859260422991e-01,2.410483989857760967e-01,2.719482158284354245e-01,-4.744197012517657394e-03,-3.249699968006315998e-01,1.822203222853362604e-03,-1.441533585591547040e-01,-1.605735946391631419e+00,9.139534081942719546e-01,-8.226717142604809963e-02,-8.814851312353048918e-02,-1.182841573588058193e-01,4.583103744604750673e-01,-2.920442486727343190e-01,-7.030513382194129024e-01,-3.030550327055895332e-01,-7.340836949910266307e-02
-1.289565469218212579e+00,1.696963273020700436e-01,4.742321700827707986e-01,-8.608881523944049430e-02,-1.685285817368543659e+00,5.603879068345579695e-01,-3.268873418225606842e-01,-1.687229030995430756e-01,7.315611007051827652e-01,-2.455921672510325227e+00,1.557180603224402438e+00,-2.834720455470246758e+00,-1.540714515388498462e+00,-2.808935512744458740e-01,1.766612413817782112e+00,3.813316375620608434e-01,-1.306307067546008449e+00,2.105832562204479064e-01,1.011243117103411526e+00,3.276709874087568863e-01,8.474256148087738749e-01,-1.292616416662580647e+00,3.014797864398885852e-03,1.124664825052856670e-01,7.050736887688359156e-01,-7.389831815457056918e-02,-4.169585447015317636e-01,5.680243560292843608e-01,-1.163135367365343953e+00,1.178271146320306606e-01,3.746079711927844391e-01,4.317416845352596844e-01,-3.827944707201694774e-01,5.609573062113798469e-01,7.622423111530330919e-01,-1.228693865772317317e-01,5.473905471408301304e-01,8.718703733723536242e-01,-2.722183401606318998e-01,2.784169589411150669e-01,-2.309233128827815895e-01,-1.178269489488389166e+00,-2.510749630706540225e-01,1.011833841320533278e-01,1.614299896150236946e-02,-8.035718158866479444e-01,8.652648390571565304e-03,-5.976000484894918030e-02,6.116684005794637002e-01,6.900387028762534625e-01,-3.601337936379650495e-02,-5.687779021650636313e-01,-2.172056493019388843e-02,2.574874387039515211e-01,-6.076843646977603264e-01,-2.156011654647734255e-01,5.071982129816372115e-02,6.658112011514817630e-02,-9.827823141205742352e-02,-5.975198883205561362e-01,-5.980774860350775990e-01,3.869764908731639919e-01,2.624378380750887474e-01,1.110555295889550514e-01
-6.614117086231247056e-01,-2.183048838314049611e+00,3.818648067677322122e-01,-4.717998575092741675e-01,4.356601409494075261e-01,4.003229944866122936e-01,2.504368182956818734e-01,-2.423369841824793536e+00,6.342226417676438688e-01,1.310540561173380247e+00,5.643139596672557268e-01,9.715701813547538146e-01,4.480240460349080300e-01,-5.241641343975607104e-01,1.159330654861965737e+00,-7.062015131377035182e-01,-6.752575761458952108e-01,8.542382089239338727e-01,-1.249326517814599580e-01,4.159956985843447919e-02,4.226339210119067769e-01,-9.440460026677047756e-01,5.631345449599068909e-01,2.670150511101773150e-01,-8.100526990440565234e-01,-5.165865584956398360e-01,-2.082786361716192081e-02,3.714249959426113579e-01,2.483385560646222401e-01,1.866108765527751123e-01,-6.062337451098698260e-01,2.557744458974959834e+00,1.012233116608890482e+00,7.269232659110498318e-01,1.752300538628761561e-01,6.585709507784091032e-01,-2.697585479423587548e-02,2.533301229229616425e-01,-4.023401444917413250e-01,-2.697678280978541565e-01,-8.345164177078299161e-01,-1.499453152349412566e-01,1.387532543349141445e-01,9.010087267976182868e-02,1.206828433873060741e-01,-3.881515011510960900e-01,-4.073336128076133350e-02,-7.314756917059864194e-02,-6.275403689260804219e-02,9.244198673723273696e-02,6.353413034395498371e-02,4.133533023365555947e-01,6.742882879151745890e-02,-1.175642660043169779e-01,2.900260516301119029e+00,-2.894308350378124381e-02,8.227373454106928774e-03,1.703933952312277900e-01,1.231984856934445066e-01,8.321317743725062388e-02,1.580502070251388336e-01,2.190757551746698450e-01,4.386528744498742749e-01,-1.539232233820617135e-01
4.318966175724652246e-01,-1.771074300408838953e+00,-5.880902926845718026e-01,1.362095083833457565e+00,-4.083584388429659096e-01,-1.707400667075177569e+00,6.188242774011312730e-02,6.252918392917576895e-01,5.645498895418107344e-01,9.822302103487592362e-01,-1.238294107261776050e-01,2.235226836781478710e+00,9.635708549261273737e-01,-6.149956333384916096e-01,3.901724206863226296e+00,-9.244719207750451417e-01,-1.768254167955594924e-01,4.874949793302072454e-01,4.078738576399102977e-01,2.273939167457717514e-01,3.504012024181097501e-02,1.585733314919597570e+00,1.637132747840264857e+00,1.538991905512156366e+00,1.111568900068129917e+00,6.229165104032406003e-02,-6.362156904444824512e-01,-6.985635956315654482e-01,1.188303226029418652e-01,2.763003990856907621e-02,-1.106605756415789676e-01,-5.188400066853057879e+00,1.367662563221291872e-01,-9.707195739550514846e-01,-8.276239822868971530e-01,3.102897121578581108e-01,-4.311912734503881017e-01,-2.374663604938493169e-02,9.037522521677850140e-02,4.953802631267408829e-01,-1.439235957472942307e+00,-1.333581102396382168e+00,5.157194950845753190e-02,-2.910606637753424542e-01,6.126181366312072329e-01,5.967635041114837113e-01,3.512638396783418493e-01,1.909815703993085201e-01,2.710962549530271937e-01,1.484986507083851714e+00,-3.301406351433652103e-02,-1.479681855574158100e-01,7.408106074369673333e-02,5.283424160002656578e-01,-3.603715151664504734e+00,-1.388042066471305014e-01,1.781712407440200485e-01,-5.415284516648274232e-02,-5.788195925295305799e-02,-3.648326513818920258e-01,-5.102132987257567143e-01,-7.936941280287528322e-01,-1.094917552456812215e-01,4.933747879627058824e-02
1.371105440683864307e+00,-2.138171743940647129e+00,1.090143104255847817e+00,8.044237186799921280e-02,2.325197499616582231e-01,-1.690614762564580653e+00,4.427625103131144213e-02,-4.866621251581591534e-01,-6.270051289341685985e-01,4.133283866267997708e-01,-9.622127626471900508e-02,1.599606947359141496e-01,-1.689863509971165412e+00,-1.926992146234444425e-01,-6.856719508234075944e-01,8.967157962294461382e-02,-1.185117384946428709e+00,4.550892183299141691e-01,8.084638509475680079e-01,6.129707346716666283e-01,1.059119623485757389e+00,-2.228268017943654533e-01,2.696638008932683572e-01,-1.346342279631961882e-02,7.958760689184106729e-01,1.854890844921419923e-01,3.469903895878412997e-02,-3.110144564523056876e-01,3.772164402106331638e-01,1.502704800538478581e-02,1.297199353155074064e-01,1.543869555648637482e+00,-5.134905820724579018e-01,1.990955357402055315e+00,-3.003498368708283350e-01,-2.269813094183541491e-01,4.804997223459537836e-01,-6.801596113367094354e-01,2.786650955982172273e-01,-1.113722226964760198e+00,-8.123739565912614369e-01,-2.588130791292914679e-01,-6.921075267992164715e-02,8.025071589333522271e-01,-4.274851476630093239e-01,-6.332879161088669218e-01,1.510560527220582983e-01,-6.558840550639033311e-03,7.314100967783140339e-01,2.607159243919826785e+00,-4.996869587168907556e-02,-9.451136370759427585e-01,-2.261956386098478711e-01,1.956738140267038628e-01,-2.698964645011887598e-01,-6.798339538588649145e-01,-4.655155961321780222e-02,2.221102423580719604e-02,-4.528823673307948994e-01,1.016553912416956196e-01,-2.746605654384171591e-01,-6.853929497511516977e-02,-4.201438473023172970e-01,-3.854762003161153056e-02
1.395427751309980646e+00,-1.020362481494953899e+00,-8.929603625607571704e-01,-3.781915354753834224e-01,5.250404171198724823e-01,4.096178774782468501e-01,3.597218590197162058e-01,1.602227951559653807e+00,9.225712174242407526e-01,-3.852762500302082671e+00,7.171313506329258791e-01,3.611914217074977174e+00,7.611532173154852421e-01,-6.193826914759957836e-01,-8.602221153729255887e-01,-8.349604112467270411e-01,3.571305101977813035e-01,-2.914213755959740859e-01,1.103504932481514933e+00,-2.395248000746105776e-01,-6.169758930816107018e-02,-1.644566051107571383e-02,6.036756271752048431e-01,2.446779717906495399e-01,2.496389099431668701e-01,-1.245460448898836614e-01,6.839774845918457358e-02,1.086207512469288705e+00,-8.499058802740476481e-02,-9.262159977526398524e-01,-6.100954781047435160e-01,-5.189947164310498628e+00,3.128426001652754862e-01,-1.630140929947960782e+00,2.684811308597087054e-01,-4.515986961357119078e-01,1.103267557110306912e-01,-1.676566728782049376e+00,-5.272871986837430747e-01,-5.914549131249684510e-01,9.972062211833226941e-01,2.346184217615839174e+00,-2.856185193163397473e-01,-1.940212668610635238e-01,-5.062177308090234917e-02,-4.721114611026965835e-01,-8.301782896539017242e-02,-2.490456666734154334e-01,2.120838637429534324e-01,1.455380581855718392e+00,1.521583743206958717e-01,7.374924247348880746e-01,-4.850298056468060198e-02,9.345836630453532856e-02,1.922499801032717448e+00,-1.821776746764707244e-01,-8.292571084818073021e-03,-2.135236965194249326e-01,4.872590553769870492e-01,9.833148977720861383e-01,2.088353588974995595e-02,3.321670920163585783e-02,-3.511284092925139044e-02,3.256204665041119439e-02
6.610785162201110454e-01,-1.183452411692687001e+00,2.248727819334700229e+00,-4.587084615411547994e-01,-6.621866594174264931e-01,1.438570997668034757e+00,1.472982726250593455e+00,-1.127364652539347922e+00,9.041794213471145980e-01,7.526694091240166973e-01,-6.848446594097311324e-02,-2.525552763328041461e+00,-1.174736348378199402e+00,4.152269444446930746e-02,-1.192933253994413745e+00,-5.244985426559903297e-02,-1.118306776574780947e+00,-4.509303795179460117e-01,1.000259092633114300e+00,3.622989602466251124e-01,2.262232004306777566e-01,-3.375991802519185403e-01,7.737727794196074260e-01,-2.870493991346632565e-02,1.907992252071190886e-01,-2.389933870195301013e-01,-2.197425062693219855e-01,2.153443020556619347e-01,4.039519873663862115e-01,1.315505280546767519e+00,4.373865794255512029e-01,4.743879255554186436e+00,4.569101881441037794e-01,7.008543708964688479e-01,5.296336455698364976e-01,4.349812245041915215e-01,-3.463808247232063042e-01,-5.618461012222867312e-01,-1.390990281275282514e-01,8.775178236380156704e-01,-5.069935614879036434e-01,-1.156854044825443850e+00,-6.397628533899127334e-02,-2.360220404345499401e-01,2.168442474943233778e-01,1.403241017984386274e-01,-1.238968644296838534e-01,6.076425802367293322e-02,-1.477923925067282429e+00,-1.798272563519744294e+00,2.299021753010354885e-01,5.054088515020563888e-01,2.177526689536767729e-02,3.773904958417267919e-01,7.869811347933007850e-01,-5.838310184489023946e-01,8.646293741972324587e-02,3.204385199384521959e-02,1.373812214045551650e-01,5.900305293776673260e-02,1.735795653375422354e-01,6.641813918931762650e-01,-8.738602045729461365e-02,2.089900445148724570e-02
3.214259683536638823e-01,4.504788196013783351e-03,-5.197547638497421740e-01,3.585896803734525684e-01,1.569463195901312780e-01,1.836784147405132517e+00,-4.705096229020886422e-01,-6.238512001001793594e-01,1.656977212807861255e+00,-1.645472492989107804e+00,4.737091149208527002e-02,-1.945842061468890272e+00,-3.370058818148387592e-01,-5.345366808972094042e-01,-1.094917274790168316e+00,-8.375331874262030851e-01,-1.893601718466233208e-01,-6.302085255755913717e-01,8.943321320111115025e-01,7.817631026384759263e-01,-9.644238033703711466e-02,2.828846527185723048e+00,-1.957609789933766609e-01,-3.485269312934957675e-01,-6.153870248070938409e-01,1.676733568021865906e-01,-1.597772442946979732e-01,7.571712332072166873e-01,-2.380866131218579984e-01,-3.478019523685401126e-01,-2.248893296120216545e-01,7.092822202516535501e-01,4.699899090895614528e-01,5.868375510035219733e-01,7.628527199163555039e-01,5.862728569372303022e-01,9.910592933335842236e-01,-8.843905071069544377e-01,-3.160504412037011268e-01,3.026773179048475315e-01,1.252578811048865870e-01,-1.563011214349034450e+00,6.212605501473789787e-02,3.285412445870741771e-01,-4.056400651833992899e-01,-3.014203172530437458e-01,-1.637639629797354168e-01,2.473347378436680233e-01,-4.206105430965911829e-01,-7.392117206328944201e-01,4.977662178991652982e-03,4.123769647653578452e-01,-4.320689798992474046e-02,-1.152106261725150405e-01,1.157904847725022224e+00,-1.263939507078056135e+00,7.181122825307504481e-03,-5.050940749619715897e-02,2.970898391708072794e-01,1.546958579418276636e-01,5.169599173865754849e-02,-2.472889020419884731e-01,-7.505854800366565938e-01,1.584957253214016315e-01
8.254732648381091220e-01,1.468645616070085813e+00,3.720105260400033975e-01,-3.418457768277572972e-01,-1.214583269484307282e+00,1.208411009661568142e-01,-6.042840276235214025e-01,6.858563670300313886e-01,9.263717413213972129e-01,-6.185086403238926334e-01,-7.484001741607640978e-01,-2.263382078306823419e-01,4.451481817491060311e-01,-6.117189265080597710e-02,9.647849661554720457e-01,-1.437847635769466947e-01,-1.993764274103371481e-01,1.374773338499638009e-02,-1.790052648369753641e+00,5.445085064892765669e-02,-6.197591877410600913e-01,-1.073441117431069292e-01,-3.381926199717139592e-01,-6.875149852300370679e-01,-1.779261597278808671e-01,-3.812323774028146973e-03,-2.817005545729635574e-01,7.627762082077185202e-01,3.408043478108206958e-01,-2.314709276510003577e-01,-2.421291139213498922e-01,-2.844163759010706283e+00,7.850183558854406662e-01,2.455981972141403069e-01,8.990631361749884531e-01,-1.948698622384685900e-02,-6.628487090809507265e-01,-2.257596699593536760e-01,-6.425706328231808317e-01,1.990903423463822597e-01,6.383108932484047315e-01,-1.165691843793595084e-01,-2.064384631747613608e-02,1.199765545843348713e-01,-9.359115925378573564e-02,-9.475520310188851880e-01,3.060451082341091866e-01,4.518753338965525446e-02,1.182531326806324001e+00,-1.136012919698397683e+00,-1.073849654211428972e-01,-1.582065166131648992e-01,-4.413475182121311818e-02,-2.417190240621316932e-01,1.034787017048422575e+00,-1.021389524376500012e-02,6.013578210915031946e-02,-2.052041280609187557e-02,-2.224072127922375186e-01,-3.108851047659026423e-01,8.712795081512114681e-02,1.958164122752951153e-01,4.511050177872593658e-01,2.288297107380266315e-01
-7.338347269841329901e-01,-4.179610618719906689e-01,1.318952860013222761e+00,-1.107852264367019446e+00,-1.109426006767907369e+00,-5.924457492924938284e-01,3.289444354026131029e-02,-1.214908889343383924e+00,-3.226687547144279078e-01,2.952424487611712944e+00,4.222362256006481629e-01,-1.440039594109387422e-01,1.217467316994479548e-01,1.567754393799834778e-01,-1.541727572694200910e-01,-1.092281140495652940e-02,-1.308910015369285362e-01,8.856194481405198493e-01,1.506015199153287520e+00,4.336696753675168825e-01,2.395739246492917529e-01,4.283487036078424959e-01,-3.693995159354589441e-01,4.101733328597321204e-01,-9.285303388915269185e-01,4.900838983024680129e-02,-4.078673652543038930e-01,-7.366568002483984134e-01,-7.909704855134013224e-01,-4.273563790004243912e-01,-3.501857119439020782e-01,-2.481285279697638568e+00,1.642924629816503723e-01,-3.754186457287829182e-01,9.042494619135582612e-01,-5.405227046477750763e-01,4.931578352185920222e-01,3.231310455907371315e-02,5.280590230044798772e-02,-3.128465491272913734e-01,-3.385643643828211702e-01,7.485667174458224826e-01,-1.400190048316498348e-01,3.306975375401794426e-01,-3.688677775882853171e-01,1.365360329596206068e-01,-3.167001803130828907e-01,-2.924905830095488324e-01,-1.449322843677834649e-01,8.173225866323888811e-01,-8.676406900883218420e-02,-6.340162814101559796e-01,4.940308676972825913e-02,-7.089175263529431947e-02,1.025338681745194824e+00,-2.354596418434810046e-01,2.831859721638205901e-02,-1.515884750008973485e-02,9.172813935354531267e-01,6.262080390943606245e-01,2.182416969920149621e-02,9.251485830086391138e-01,3.179276858636634340e-01,6.350610512454669954e-02
2.226807450181659931e+00,-1.011321091479604029e+00,7.927423706062627362e-01,-7.493535555450755448e-01,-8.590958059570463767e-01,-6.946104261305046101e-01,1.037689095085812419e+00,8.925895557003440950e-02,-7.375767247655484748e-01,2.347951684508795336e-02,-3.053197695628020458e-01,-2.488407273829301491e+00,8.021784824045202766e-01,-8.556157285804896206e-01,8.383237713468492114e-01,-1.359482233727176692e-01,-3.144246551409044521e-01,-2.670485881854157972e-02,-4.288964160066401909e-01,9.628557802421884582e-02,-4.630238665632243622e-01,-4.692830659553496875e-01,-5.795915620768082865e-01,-1.017151396740176850e+00,1.359127206949438893e+00,1.357714468891114135e-01,3.527313542864447538e-01,-1.149960284822110879e+00,-2.599940858046698722e-01,-3.250975841873182670e-01,-2.176515019887033664e-01,2.312151103251980810e+00,-1.086188315862439469e+00,-1.890580254534113047e+00,-7.143585599999498909e-03,2.777478175137282346e-01,1.196440218750919326e+00,-1.273385396633963662e+00,-2.387224124354920540e-01,-5.230427495657843373e-01,7.755207444872675993e-01,-1.302609934522159119e+00,-1.102769061009680612e-01,9.207193894071254991e-01,-2.645526700206199400e-01,1.815101054141423920e-01,2.515531578710049621e-01,8.706844832489649133e-02,4.836407449825201876e-01,1.048392400375009748e-01,6.830156492319236147e-03,-1.301123805694893443e-01,-1.442363049114555318e-01,-5.496593170466667483e-02,-2.675478524014228476e+00,8.227877592819100583e-01,-3.570622477944759843e-02,-1.175788696505293413e-01,3.269993347671548700e-01,-7.516894579366480977e-01,7.890190068359746733e-02,3.934354055367098590e-01,5.417860248190430328e-01,2.110780637547761129e-01
